{"sizes":[19,9,7],"layers":[{"hol":{},"amig":{},"com":{},"estas":{},"qui":{},"eres":{},"te":{},"llam":{},"que":{},"edad":{},"tien":{},"de":{},"color":{},"es":{},"el":{},"mar":{},"dim":{},"un":{},"chist":{}},{"0":{"bias":-0.0091745899990201,"weights":{"hol":0.35900628566741943,"amig":0.1734505593776703,"com":-0.9052350521087646,"estas":-1.2533130645751953,"qui":1.2112358808517456,"eres":1.351636290550232,"te":0.38013628125190735,"llam":0.3253265917301178,"que":-0.30896589159965515,"edad":-0.9415565729141235,"tien":-1.0128782987594604,"de":0.48267650604248047,"color":0.6830782890319824,"es":0.7617440819740295,"el":0.6824420690536499,"mar":0.7351962327957153,"dim":-0.5193466544151306,"un":-0.23278295993804932,"chist":-0.3553798496723175}},"1":{"bias":-0.25185683369636536,"weights":{"hol":-0.7006648778915405,"amig":-0.5376131534576416,"com":1.4917877912521362,"estas":0.44826921820640564,"qui":-0.11990999430418015,"eres":-0.4152485728263855,"te":1.1667605638504028,"llam":0.9152947664260864,"que":-0.8770174384117126,"edad":-0.7368451952934265,"tien":-0.9763112664222717,"de":0.22005262970924377,"color":0.33349910378456116,"es":0.10649214684963226,"el":0.11137593537569046,"mar":0.0189030971378088,"dim":-0.4316186010837555,"un":-0.4175925850868225,"chist":-0.5011180639266968}},"2":{"bias":-0.12554185092449188,"weights":{"hol":-0.9611597657203674,"amig":-1.088895320892334,"com":0.21099945902824402,"estas":0.5629135370254517,"qui":1.1892417669296265,"eres":1.2180010080337524,"te":-0.7102643251419067,"llam":-0.43631479144096375,"que":0.8629049062728882,"edad":0.4884687662124634,"tien":0.3321079611778259,"de":0.29131990671157837,"color":0.4368928074836731,"es":0.3945245146751404,"el":0.37973159551620483,"mar":0.30255845189094543,"dim":-0.852145791053772,"un":-0.7754695415496826,"chist":-0.6462981104850769}},"3":{"bias":-0.1421906054019928,"weights":{"hol":1.5307401418685913,"amig":1.5161999464035034,"com":-0.9401128888130188,"estas":-0.648005485534668,"qui":-0.7098156213760376,"eres":-0.6474925875663757,"te":-0.31407904624938965,"llam":-0.533670961856842,"que":0.8017953038215637,"edad":0.5603579878807068,"tien":0.6389026641845703,"de":-0.1181362047791481,"color":-0.08599811792373657,"es":-0.015831591561436653,"el":-0.12315916270017624,"mar":0.017520638182759285,"dim":-1.0595871210098267,"un":-0.9565806984901428,"chist":-1.022373080253601}},"4":{"bias":0.6256682872772217,"weights":{"hol":0.5650594234466553,"amig":0.6789929270744324,"com":0.08352062851190567,"estas":1.7439824342727661,"qui":0.5643050074577332,"eres":0.4887000620365143,"te":-1.4805794954299927,"llam":-1.5211682319641113,"que":-1.1403541564941406,"edad":-0.6821746230125427,"tien":-0.8291115164756775,"de":-0.5398229360580444,"color":-0.6749681830406189,"es":-0.4214814007282257,"el":-0.6642739176750183,"mar":-0.6596647500991821,"dim":0.3234792649745941,"un":0.16689033806324005,"chist":0.4905628263950348}},"5":{"bias":0.08746344596147537,"weights":{"hol":0.11856599897146225,"amig":0.2982308268547058,"com":-1.1111472845077515,"estas":-1.3133562803268433,"qui":0.20806217193603516,"eres":0.20637831091880798,"te":0.12130042910575867,"llam":0.06754739582538605,"que":0.05435510724782944,"edad":0.2774459421634674,"tien":0.45899268984794617,"de":-0.3827100694179535,"color":-0.37045976519584656,"es":-0.41878828406333923,"el":-0.42544859647750854,"mar":-0.45011502504348755,"dim":1.0696690082550049,"un":0.8126888871192932,"chist":1.0887151956558228}},"6":{"bias":-0.09357286244630814,"weights":{"hol":-0.9730923771858215,"amig":-1.1558092832565308,"com":0.10629881173372269,"estas":-0.5439196228981018,"qui":0.5695013403892517,"eres":0.33652520179748535,"te":0.804178774356842,"llam":0.9172137975692749,"que":0.5339449048042297,"edad":1.1662875413894653,"tien":1.1234909296035767,"de":-0.5838310122489929,"color":-0.5492178201675415,"es":-0.8252540230751038,"el":-0.7249317169189453,"mar":-0.628483772277832,"dim":-0.3199702501296997,"un":-0.37423598766326904,"chist":-0.36642569303512573}},"7":{"bias":0.026671161875128746,"weights":{"hol":-0.34712550044059753,"amig":-0.5650854706764221,"com":0.1891176700592041,"estas":-0.4728425443172455,"qui":-1.0898540019989014,"eres":-1.1915481090545654,"te":0.7911079525947571,"llam":0.6189440488815308,"que":0.43267109990119934,"edad":0.06566708534955978,"tien":0.29691392183303833,"de":0.04810193553566933,"color":0.12736155092716217,"es":-0.06526118516921997,"el":0.19855740666389465,"mar":0.2292509824037552,"dim":0.8885647654533386,"un":0.9396711587905884,"chist":0.7093881368637085}},"8":{"bias":-0.1519172638654709,"weights":{"hol":0.012958668172359467,"amig":-0.03887217491865158,"com":0.3514791429042816,"estas":0.8581658601760864,"qui":-1.1182130575180054,"eres":-1.0393428802490234,"te":-0.719749391078949,"llam":-0.8259722590446472,"que":0.7709237933158875,"edad":0.24334774911403656,"tien":0.08950041979551315,"de":0.6606577634811401,"color":0.46534791588783264,"es":0.601466715335846,"el":0.582876443862915,"mar":0.6344013810157776,"dim":-0.025513295084238052,"un":-0.0485084131360054,"chist":-0.14540347456932068}}},{"Que tal?":{"bias":-0.6967149376869202,"weights":{"0":0.1327936202287674,"1":-1.131626844406128,"2":-2.097330331802368,"3":2.9006755352020264,"4":0.9818915128707886,"5":-0.02873379923403263,"6":-1.8389476537704468,"7":-1.378843069076538,"8":-0.5023045539855957}},"Muy bien.":{"bias":-0.5830801129341125,"weights":{"0":-2.4553933143615723,"1":1.1965618133544922,"2":0.4793769419193268,"3":-1.2491552829742432,"4":2.0985524654388428,"5":-2.60943865776062,"6":-0.6297500133514404,"7":-0.9975642561912537,"8":0.6116703748703003}},"Tu mejor amig":{"bias":-0.9144936800003052,"weights":{"0":1.75108802318573,"1":-0.7283923029899597,"2":1.6170260906219482,"3":-1.4022765159606934,"4":0.7962561249732971,"5":-0.26058799028396606,"6":0.4170093536376953,"7":-2.615114688873291,"8":-2.43835711479187}},"me llamo Einstein":{"bias":-0.6390857100486755,"weights":{"0":-0.5315039157867432,"1":2.4227335453033447,"2":-1.05650794506073,"3":-1.3793669939041138,"4":-2.518110752105713,"5":-0.6862794160842896,"6":1.390255331993103,"7":0.6100788116455078,"8":-1.610111117362976}},"20/06/21 es la fecha de mi nac":{"bias":-0.98541259765625,"weights":{"0":-2.140454053878784,"1":-2.514127731323242,"2":0.4846409261226654,"3":1.3023029565811157,"4":-1.9512923955917358,"5":0.1766694337129593,"6":2.089362144470215,"7":-0.26591238379478455,"8":0.23837421834468842}},"de color azul":{"bias":-0.9494990706443787,"weights":{"0":1.6933454275131226,"1":-0.5926741361618042,"2":0.7456980347633362,"3":0.10285495966672897,"4":-2.6060519218444824,"5":-1.5305153131484985,"6":-2.175352096557617,"7":-0.43766453862190247,"8":1.7033240795135498}},"toc toc":{"bias":-0.39814600348472595,"weights":{"0":-1.301440954208374,"1":-1.3656474351882935,"2":-2.1550674438476562,"3":-2.507159471511841,"4":0.7782003283500671,"5":1.965524673461914,"6":-1.159650444984436,"7":1.2069886922836304,"8":-0.6067174673080444}}}],"outputLookup":true,"inputLookup":true,"activation":"sigmoid","trainOpts":{"iterations":20000,"errorThresh":0.005,"log":false,"logPeriod":10,"learningRate":0.3,"momentum":0.1,"callbackPeriod":10,"beta1":0.9,"beta2":0.999,"epsilon":1e-8}}